{"version":1,"layers":[5,6,3],"weights":[0.3244674801826477,-0.7541070580482483,0.36510342359542847,0.3265024721622467,-0.16016416251659393,-0.4049881100654602,-0.5718569159507751,0.3595368266105652,0.20653285086154938,-0.3458904027938843,0.15029358863830566,-0.1740841269493103,1.0080039501190186,-0.3966715335845947,0.13604864478111267,0.10967765748500824,-0.35031065344810486,1.0704213380813599,-0.5463378429412842,0.9354256987571716,0.7508746385574341,-0.00241065863519907,0.06704576313495636,-0.0752808079123497,0.33795371651649475,-0.3051908612251282,-0.03691890463232994,-0.09509621560573578,0.1981079876422882,0.12678983807563782,0,0,0,0,0,0,-0.24005456268787384,-1.0207786560058594,-0.47127631306648254,0.7749654650688171,0.5137428641319275,-0.4170367121696472,0.08041015267372131,-0.17793042957782745,0.690953254699707,0.8849396109580994,-0.326083779335022,0.5545720458030701,0.41358181834220886,0.3657565116882324,-0.8562537431716919,0.23758774995803833,0.3561864495277405,-0.1863066554069519,0,0,0],"fitness":1151,"generation":1,"timestamp":"2026-05-22T12:42:34.434Z"}